digraph Tree {
node [shape=box] ;
0 [label="y <= 12.561\ngini = 0.48\nsamples = 900\nvalue = [540, 360]"] ;
1 [label="y <= 6.237\ngini = 0.418\nsamples = 444\nvalue = [312, 132]"] ;
0 -> 1 [labeldistance=2.5, labelangle=45, headlabel="True"] ;
2 [label="x <= 6.407\ngini = 0.493\nsamples = 264\nvalue = [148, 116]"] ;
1 -> 2 ;
3 [label="x <= 5.532\ngini = 0.074\nsamples = 52\nvalue = [50, 2]"] ;
2 -> 3 ;
4 [label="gini = 0.0\nsamples = 41\nvalue = [41, 0]"] ;
3 -> 4 ;
5 [label="gini = 0.298\nsamples = 11\nvalue = [9, 2]"] ;
3 -> 5 ;
6 [label="x <= 12.869\ngini = 0.497\nsamples = 212\nvalue = [98, 114]"] ;
2 -> 6 ;
7 [label="y <= 2.404\ngini = 0.414\nsamples = 154\nvalue = [45, 109]"] ;
6 -> 7 ;
8 [label="y <= 2.116\ngini = 0.499\nsamples = 25\nvalue = [13, 12]"] ;
7 -> 8 ;
9 [label="gini = 0.475\nsamples = 18\nvalue = [7, 11]"] ;
8 -> 9 ;
10 [label="gini = 0.245\nsamples = 7\nvalue = [6, 1]"] ;
8 -> 10 ;
11 [label="y <= 3.457\ngini = 0.373\nsamples = 129\nvalue = [32, 97]"] ;
7 -> 11 ;
12 [label="x <= 9.667\ngini = 0.234\nsamples = 37\nvalue = [5, 32]"] ;
11 -> 12 ;
13 [label="x <= 9.336\ngini = 0.363\nsamples = 21\nvalue = [5, 16]"] ;
12 -> 13 ;
14 [label="gini = 0.278\nsamples = 18\nvalue = [3, 15]"] ;
13 -> 14 ;
15 [label="gini = 0.444\nsamples = 3\nvalue = [2, 1]"] ;
13 -> 15 ;
16 [label="gini = 0.0\nsamples = 16\nvalue = [0, 16]"] ;
12 -> 16 ;
17 [label="y <= 3.516\ngini = 0.415\nsamples = 92\nvalue = [27, 65]"] ;
11 -> 17 ;
18 [label="gini = 0.0\nsamples = 3\nvalue = [3, 0]"] ;
17 -> 18 ;
19 [label="x <= 8.773\ngini = 0.394\nsamples = 89\nvalue = [24, 65]"] ;
17 -> 19 ;
20 [label="y <= 3.988\ngini = 0.483\nsamples = 27\nvalue = [11, 16]"] ;
19 -> 20 ;
21 [label="gini = 0.0\nsamples = 3\nvalue = [0, 3]"] ;
20 -> 21 ;
22 [label="y <= 4.354\ngini = 0.497\nsamples = 24\nvalue = [11, 13]"] ;
20 -> 22 ;
23 [label="gini = 0.0\nsamples = 2\nvalue = [2, 0]"] ;
22 -> 23 ;
24 [label="x <= 7.15\ngini = 0.483\nsamples = 22\nvalue = [9, 13]"] ;
22 -> 24 ;
25 [label="gini = 0.469\nsamples = 8\nvalue = [5, 3]"] ;
24 -> 25 ;
26 [label="gini = 0.408\nsamples = 14\nvalue = [4, 10]"] ;
24 -> 26 ;
27 [label="x <= 12.619\ngini = 0.331\nsamples = 62\nvalue = [13, 49]"] ;
19 -> 27 ;
28 [label="x <= 9.993\ngini = 0.303\nsamples = 59\nvalue = [11, 48]"] ;
27 -> 28 ;
29 [label="gini = 0.111\nsamples = 17\nvalue = [1, 16]"] ;
28 -> 29 ;
30 [label="y <= 3.799\ngini = 0.363\nsamples = 42\nvalue = [10, 32]"] ;
28 -> 30 ;
31 [label="gini = 0.0\nsamples = 1\nvalue = [1, 0]"] ;
30 -> 31 ;
32 [label="x <= 10.142\ngini = 0.343\nsamples = 41\nvalue = [9, 32]"] ;
30 -> 32 ;
33 [label="gini = 0.0\nsamples = 1\nvalue = [1, 0]"] ;
32 -> 33 ;
34 [label="y <= 6.093\ngini = 0.32\nsamples = 40\nvalue = [8, 32]"] ;
32 -> 34 ;
35 [label="x <= 10.688\ngini = 0.295\nsamples = 39\nvalue = [7, 32]"] ;
34 -> 35 ;
36 [label="gini = 0.469\nsamples = 8\nvalue = [3, 5]"] ;
35 -> 36 ;
37 [label="y <= 4.717\ngini = 0.225\nsamples = 31\nvalue = [4, 27]"] ;
35 -> 37 ;
38 [label="y <= 4.43\ngini = 0.32\nsamples = 20\nvalue = [4, 16]"] ;
37 -> 38 ;
39 [label="gini = 0.208\nsamples = 17\nvalue = [2, 15]"] ;
38 -> 39 ;
40 [label="gini = 0.444\nsamples = 3\nvalue = [2, 1]"] ;
38 -> 40 ;
41 [label="gini = 0.0\nsamples = 11\nvalue = [0, 11]"] ;
37 -> 41 ;
42 [label="gini = 0.0\nsamples = 1\nvalue = [1, 0]"] ;
34 -> 42 ;
43 [label="gini = 0.444\nsamples = 3\nvalue = [2, 1]"] ;
27 -> 43 ;
44 [label="x <= 14.039\ngini = 0.158\nsamples = 58\nvalue = [53, 5]"] ;
6 -> 44 ;
45 [label="gini = 0.463\nsamples = 11\nvalue = [7, 4]"] ;
44 -> 45 ;
46 [label="y <= 5.587\ngini = 0.042\nsamples = 47\nvalue = [46, 1]"] ;
44 -> 46 ;
47 [label="gini = 0.0\nsamples = 43\nvalue = [43, 0]"] ;
46 -> 47 ;
48 [label="gini = 0.375\nsamples = 4\nvalue = [3, 1]"] ;
46 -> 48 ;
49 [label="y <= 10.675\ngini = 0.162\nsamples = 180\nvalue = [164, 16]"] ;
1 -> 49 ;
50 [label="y <= 6.594\ngini = 0.079\nsamples = 122\nvalue = [117, 5]"] ;
49 -> 50 ;
51 [label="gini = 0.355\nsamples = 13\nvalue = [10, 3]"] ;
50 -> 51 ;
52 [label="y <= 10.228\ngini = 0.036\nsamples = 109\nvalue = [107, 2]"] ;
50 -> 52 ;
53 [label="y <= 7.245\ngini = 0.02\nsamples = 99\nvalue = [98, 1]"] ;
52 -> 53 ;
54 [label="gini = 0.1\nsamples = 19\nvalue = [18, 1]"] ;
53 -> 54 ;
55 [label="gini = 0.0\nsamples = 80\nvalue = [80, 0]"] ;
53 -> 55 ;
56 [label="gini = 0.18\nsamples = 10\nvalue = [9, 1]"] ;
52 -> 56 ;
57 [label="x <= 3.558\ngini = 0.307\nsamples = 58\nvalue = [47, 11]"] ;
49 -> 57 ;
58 [label="gini = 0.48\nsamples = 5\nvalue = [2, 3]"] ;
57 -> 58 ;
59 [label="x <= 18.084\ngini = 0.256\nsamples = 53\nvalue = [45, 8]"] ;
57 -> 59 ;
60 [label="y <= 12.473\ngini = 0.211\nsamples = 50\nvalue = [44, 6]"] ;
59 -> 60 ;
61 [label="x <= 15.353\ngini = 0.187\nsamples = 48\nvalue = [43, 5]"] ;
60 -> 61 ;
62 [label="x <= 15.28\ngini = 0.239\nsamples = 36\nvalue = [31, 5]"] ;
61 -> 62 ;
63 [label="y <= 11.819\ngini = 0.202\nsamples = 35\nvalue = [31, 4]"] ;
62 -> 63 ;
64 [label="y <= 10.806\ngini = 0.083\nsamples = 23\nvalue = [22, 1]"] ;
63 -> 64 ;
65 [label="gini = 0.5\nsamples = 2\nvalue = [1, 1]"] ;
64 -> 65 ;
66 [label="gini = 0.0\nsamples = 21\nvalue = [21, 0]"] ;
64 -> 66 ;
67 [label="gini = 0.375\nsamples = 12\nvalue = [9, 3]"] ;
63 -> 67 ;
68 [label="gini = 0.0\nsamples = 1\nvalue = [0, 1]"] ;
62 -> 68 ;
69 [label="gini = 0.0\nsamples = 12\nvalue = [12, 0]"] ;
61 -> 69 ;
70 [label="gini = 0.5\nsamples = 2\nvalue = [1, 1]"] ;
60 -> 70 ;
71 [label="gini = 0.444\nsamples = 3\nvalue = [1, 2]"] ;
59 -> 71 ;
72 [label="y <= 17.194\ngini = 0.5\nsamples = 456\nvalue = [228, 228]"] ;
0 -> 72 [labeldistance=2.5, labelangle=-45, headlabel="False"] ;
73 [label="x <= 17.289\ngini = 0.485\nsamples = 344\nvalue = [142, 202]"] ;
72 -> 73 ;
74 [label="x <= 1.831\ngini = 0.468\nsamples = 316\nvalue = [118, 198]"] ;
73 -> 74 ;
75 [label="gini = 0.117\nsamples = 16\nvalue = [15, 1]"] ;
74 -> 75 ;
76 [label="y <= 15.682\ngini = 0.451\nsamples = 300\nvalue = [103, 197]"] ;
74 -> 76 ;
77 [label="x <= 12.558\ngini = 0.4\nsamples = 206\nvalue = [57, 149]"] ;
76 -> 77 ;
78 [label="x <= 8.923\ngini = 0.464\nsamples = 126\nvalue = [46, 80]"] ;
77 -> 78 ;
79 [label="x <= 6.959\ngini = 0.362\nsamples = 101\nvalue = [24, 77]"] ;
78 -> 79 ;
80 [label="x <= 4.583\ngini = 0.308\nsamples = 79\nvalue = [15, 64]"] ;
79 -> 80 ;
81 [label="x <= 4.536\ngini = 0.393\nsamples = 41\nvalue = [11, 30]"] ;
80 -> 81 ;
82 [label="y <= 13.335\ngini = 0.375\nsamples = 40\nvalue = [10, 30]"] ;
81 -> 82 ;
83 [label="gini = 0.49\nsamples = 14\nvalue = [6, 8]"] ;
82 -> 83 ;
84 [label="x <= 2.256\ngini = 0.26\nsamples = 26\nvalue = [4, 22]"] ;
82 -> 84 ;
85 [label="gini = 0.0\nsamples = 1\nvalue = [1, 0]"] ;
84 -> 85 ;
86 [label="y <= 14.903\ngini = 0.211\nsamples = 25\nvalue = [3, 22]"] ;
84 -> 86 ;
87 [label="gini = 0.0\nsamples = 18\nvalue = [0, 18]"] ;
86 -> 87 ;
88 [label="gini = 0.49\nsamples = 7\nvalue = [3, 4]"] ;
86 -> 88 ;
89 [label="gini = 0.0\nsamples = 1\nvalue = [1, 0]"] ;
81 -> 89 ;
90 [label="x <= 6.626\ngini = 0.188\nsamples = 38\nvalue = [4, 34]"] ;
80 -> 90 ;
91 [label="x <= 5.493\ngini = 0.121\nsamples = 31\nvalue = [2, 29]"] ;
90 -> 91 ;
92 [label="gini = 0.198\nsamples = 18\nvalue = [2, 16]"] ;
91 -> 92 ;
93 [label="gini = 0.0\nsamples = 13\nvalue = [0, 13]"] ;
91 -> 93 ;
94 [label="gini = 0.408\nsamples = 7\nvalue = [2, 5]"] ;
90 -> 94 ;
95 [label="y <= 12.713\ngini = 0.483\nsamples = 22\nvalue = [9, 13]"] ;
79 -> 95 ;
96 [label="gini = 0.0\nsamples = 2\nvalue = [2, 0]"] ;
95 -> 96 ;
97 [label="y <= 14.115\ngini = 0.455\nsamples = 20\nvalue = [7, 13]"] ;
95 -> 97 ;
98 [label="gini = 0.245\nsamples = 7\nvalue = [1, 6]"] ;
97 -> 98 ;
99 [label="gini = 0.497\nsamples = 13\nvalue = [6, 7]"] ;
97 -> 99 ;
100 [label="y <= 15.3\ngini = 0.211\nsamples = 25\nvalue = [22, 3]"] ;
78 -> 100 ;
101 [label="x <= 11.67\ngini = 0.153\nsamples = 24\nvalue = [22, 2]"] ;
100 -> 101 ;
102 [label="gini = 0.0\nsamples = 18\nvalue = [18, 0]"] ;
101 -> 102 ;
103 [label="gini = 0.444\nsamples = 6\nvalue = [4, 2]"] ;
101 -> 103 ;
104 [label="gini = 0.0\nsamples = 1\nvalue = [0, 1]"] ;
100 -> 104 ;
105 [label="x <= 15.436\ngini = 0.237\nsamples = 80\nvalue = [11, 69]"] ;
77 -> 105 ;
106 [label="y <= 15.005\ngini = 0.085\nsamples = 45\nvalue = [2, 43]"] ;
105 -> 106 ;
107 [label="gini = 0.0\nsamples = 32\nvalue = [0, 32]"] ;
106 -> 107 ;
108 [label="gini = 0.26\nsamples = 13\nvalue = [2, 11]"] ;
106 -> 108 ;
109 [label="x <= 15.764\ngini = 0.382\nsamples = 35\nvalue = [9, 26]"] ;
105 -> 109 ;
110 [label="gini = 0.444\nsamples = 6\nvalue = [4, 2]"] ;
109 -> 110 ;
111 [label="x <= 17.223\ngini = 0.285\nsamples = 29\nvalue = [5, 24]"] ;
109 -> 111 ;
112 [label="y <= 14.51\ngini = 0.245\nsamples = 28\nvalue = [4, 24]"] ;
111 -> 112 ;
113 [label="gini = 0.408\nsamples = 14\nvalue = [4, 10]"] ;
112 -> 113 ;
114 [label="gini = 0.0\nsamples = 14\nvalue = [0, 14]"] ;
112 -> 114 ;
115 [label="gini = 0.0\nsamples = 1\nvalue = [1, 0]"] ;
111 -> 115 ;
116 [label="y <= 16.002\ngini = 0.5\nsamples = 94\nvalue = [46, 48]"] ;
76 -> 116 ;
117 [label="x <= 13.776\ngini = 0.397\nsamples = 22\nvalue = [16, 6]"] ;
116 -> 117 ;
118 [label="gini = 0.153\nsamples = 12\nvalue = [11, 1]"] ;
117 -> 118 ;
119 [label="gini = 0.5\nsamples = 10\nvalue = [5, 5]"] ;
117 -> 119 ;
120 [label="x <= 6.325\ngini = 0.486\nsamples = 72\nvalue = [30, 42]"] ;
116 -> 120 ;
121 [label="x <= 3.308\ngini = 0.366\nsamples = 29\nvalue = [7, 22]"] ;
120 -> 121 ;
122 [label="gini = 0.5\nsamples = 10\nvalue = [5, 5]"] ;
121 -> 122 ;
123 [label="gini = 0.188\nsamples = 19\nvalue = [2, 17]"] ;
121 -> 123 ;
124 [label="x <= 11.161\ngini = 0.498\nsamples = 43\nvalue = [23, 20]"] ;
120 -> 124 ;
125 [label="gini = 0.346\nsamples = 18\nvalue = [14, 4]"] ;
124 -> 125 ;
126 [label="x <= 13.298\ngini = 0.461\nsamples = 25\nvalue = [9, 16]"] ;
124 -> 126 ;
127 [label="gini = 0.245\nsamples = 7\nvalue = [1, 6]"] ;
126 -> 127 ;
128 [label="gini = 0.494\nsamples = 18\nvalue = [8, 10]"] ;
126 -> 128 ;
129 [label="y <= 13.457\ngini = 0.245\nsamples = 28\nvalue = [24, 4]"] ;
73 -> 129 ;
130 [label="gini = 0.48\nsamples = 5\nvalue = [2, 3]"] ;
129 -> 130 ;
131 [label="x <= 18.11\ngini = 0.083\nsamples = 23\nvalue = [22, 1]"] ;
129 -> 131 ;
132 [label="gini = 0.219\nsamples = 8\nvalue = [7, 1]"] ;
131 -> 132 ;
133 [label="gini = 0.0\nsamples = 15\nvalue = [15, 0]"] ;
131 -> 133 ;
134 [label="y <= 20.056\ngini = 0.357\nsamples = 112\nvalue = [86, 26]"] ;
72 -> 134 ;
135 [label="x <= 14.914\ngini = 0.341\nsamples = 110\nvalue = [86, 24]"] ;
134 -> 135 ;
136 [label="y <= 17.344\ngini = 0.269\nsamples = 81\nvalue = [68, 13]"] ;
135 -> 136 ;
137 [label="gini = 0.5\nsamples = 6\nvalue = [3, 3]"] ;
136 -> 137 ;
138 [label="x <= 4.161\ngini = 0.231\nsamples = 75\nvalue = [65, 10]"] ;
136 -> 138 ;
139 [label="gini = 0.0\nsamples = 13\nvalue = [13, 0]"] ;
138 -> 139 ;
140 [label="x <= 7.073\ngini = 0.271\nsamples = 62\nvalue = [52, 10]"] ;
138 -> 140 ;
141 [label="gini = 0.457\nsamples = 17\nvalue = [11, 6]"] ;
140 -> 141 ;
142 [label="y <= 18.315\ngini = 0.162\nsamples = 45\nvalue = [41, 4]"] ;
140 -> 142 ;
143 [label="gini = 0.0\nsamples = 24\nvalue = [24, 0]"] ;
142 -> 143 ;
144 [label="y <= 19.092\ngini = 0.308\nsamples = 21\nvalue = [17, 4]"] ;
142 -> 144 ;
145 [label="gini = 0.48\nsamples = 10\nvalue = [6, 4]"] ;
144 -> 145 ;
146 [label="gini = 0.0\nsamples = 11\nvalue = [11, 0]"] ;
144 -> 146 ;
147 [label="x <= 15.841\ngini = 0.471\nsamples = 29\nvalue = [18, 11]"] ;
135 -> 147 ;
148 [label="gini = 0.375\nsamples = 8\nvalue = [2, 6]"] ;
147 -> 148 ;
149 [label="y <= 17.668\ngini = 0.363\nsamples = 21\nvalue = [16, 5]"] ;
147 -> 149 ;
150 [label="gini = 0.5\nsamples = 6\nvalue = [3, 3]"] ;
149 -> 150 ;
151 [label="gini = 0.231\nsamples = 15\nvalue = [13, 2]"] ;
149 -> 151 ;
152 [label="gini = 0.0\nsamples = 2\nvalue = [0, 2]"] ;
134 -> 152 ;
}